Language model created by QuickLM on Sat Oct 12 19:47:07 EDT 2019
Copyright (c) 1996-2010 Carnegie Mellon University and Alexander I. Rudnicky

The model is in standard ARPA format, designed by Doug Paul while he was at MITRE.

The code that was used to produce this language model is available in Open Source.
Please visit http://www.speech.cs.cmu.edu/tools/ for more information

The (fixed) discount mass is 0.5. The backoffs are computed using the ratio method.
This model based on a corpus of 83 sentences and 37 words

\data\
ngram 1=37
ngram 2=124
ngram 3=137

\1-grams:
-0.9297 </s> -0.3010
-0.9297 <s> -0.1674
-2.8488 AFFIRMATIVE -0.2467
-1.5266 BACKWARD -0.2104
-2.8488 CONFIRM -0.2467
-2.8488 COPY -0.2467
-2.8488 DEGREE -0.2467
-1.8946 DEGREES -0.2467
-2.1498 EIGHT -0.2194
-2.8488 FIFE -0.2467
-2.1498 FIVE -0.2194
-2.3717 FORTY_FIVE -0.2404
-1.5266 FORWARD -0.2104
-2.1498 FOUR -0.2194
-2.8488 FOWER -0.2467
-2.1498 LEFT -0.2383
-2.8488 MARK -0.2467
-2.3717 METER -0.2467
-1.5701 METERS -0.2467
-2.8488 NEGATIVE -0.2467
-2.1498 NINE -0.2194
-2.8488 NINER -0.2467
-2.3717 NINETY -0.2404
-2.1498 ONE -0.2425
-2.1498 RIGHT -0.2383
-2.8488 ROGER -0.2467
-1.8946 ROTATE -0.2397
-2.3717 SECOND -0.2467
-1.5701 SECONDS -0.2467
-2.1498 SEVEN -0.2194
-2.1498 SIX -0.2194
-2.3717 SIXTY -0.2404
-2.1498 TEN -0.2194
-2.3717 THIRTY -0.2404
-2.1498 THREE -0.2194
-2.8488 TREE -0.2467
-2.1498 TWO -0.2194

\2-grams:
-2.2201 <s> AFFIRMATIVE 0.0000
-0.8979 <s> BACKWARD 0.0000
-2.2201 <s> CONFIRM 0.0000
-2.2201 <s> COPY 0.0000
-2.2201 <s> DEGREE 0.0000
-2.2201 <s> DEGREES 0.0000
-2.2201 <s> EIGHT -0.2553
-2.2201 <s> FIFE 0.0000
-2.2201 <s> FIVE -0.2553
-2.2201 <s> FORTY_FIVE -0.2218
-0.8979 <s> FORWARD 0.0000
-2.2201 <s> FOUR -0.2553
-2.2201 <s> FOWER 0.0000
-2.2201 <s> LEFT -0.2553
-2.2201 <s> MARK 0.0000
-2.2201 <s> METER 0.0000
-2.2201 <s> METERS 0.0000
-2.2201 <s> NEGATIVE 0.0000
-2.2201 <s> NINE -0.2553
-2.2201 <s> NINER 0.0000
-2.2201 <s> NINETY -0.2218
-2.2201 <s> ONE -0.2553
-2.2201 <s> RIGHT -0.2553
-2.2201 <s> ROGER 0.0000
-1.2659 <s> ROTATE 0.0000
-2.2201 <s> SECOND 0.0000
-2.2201 <s> SECONDS 0.0000
-2.2201 <s> SEVEN -0.2553
-2.2201 <s> SIX -0.2553
-2.2201 <s> SIXTY -0.2218
-2.2201 <s> TEN -0.2553
-2.2201 <s> THIRTY -0.2218
-2.2201 <s> THREE -0.2553
-2.2201 <s> TREE 0.0000
-2.2201 <s> TWO -0.2553
-0.3010 AFFIRMATIVE </s> -0.3010
-1.6232 BACKWARD </s> -0.3010
-1.3222 BACKWARD EIGHT -0.0792
-1.3222 BACKWARD FIVE -0.0792
-1.3222 BACKWARD FOUR -0.0792
-1.3222 BACKWARD NINE -0.0792
-1.3222 BACKWARD ONE -0.0792
-1.3222 BACKWARD SEVEN -0.0792
-1.3222 BACKWARD SIX -0.0792
-1.3222 BACKWARD TEN -0.0792
-1.3222 BACKWARD THREE -0.0792
-1.3222 BACKWARD TWO -0.0792
-0.3010 CONFIRM </s> -0.3010
-0.3010 COPY </s> -0.3010
-0.3010 DEGREE </s> -0.3010
-0.3010 DEGREES </s> -0.3010
-1.0000 EIGHT </s> -0.3010
-0.6990 EIGHT METERS 0.0000
-0.6990 EIGHT SECONDS 0.0000
-0.3010 FIFE </s> -0.3010
-1.0000 FIVE </s> -0.3010
-0.6990 FIVE METERS 0.0000
-0.6990 FIVE SECONDS 0.0000
-0.7782 FORTY_FIVE </s> -0.3010
-0.4771 FORTY_FIVE DEGREES 0.0000
-1.6232 FORWARD </s> -0.3010
-1.3222 FORWARD EIGHT -0.0792
-1.3222 FORWARD FIVE -0.0792
-1.3222 FORWARD FOUR -0.0792
-1.3222 FORWARD NINE -0.0792
-1.3222 FORWARD ONE -0.0792
-1.3222 FORWARD SEVEN -0.0792
-1.3222 FORWARD SIX -0.0792
-1.3222 FORWARD TEN -0.0792
-1.3222 FORWARD THREE -0.0792
-1.3222 FORWARD TWO -0.0792
-1.0000 FOUR </s> -0.3010
-0.6990 FOUR METERS 0.0000
-0.6990 FOUR SECONDS 0.0000
-0.3010 FOWER </s> -0.3010
-1.0000 LEFT </s> -0.3010
-1.0000 LEFT FORTY_FIVE -0.1249
-1.0000 LEFT NINETY -0.1249
-1.0000 LEFT SIXTY -0.1249
-1.0000 LEFT THIRTY -0.1249
-0.3010 MARK </s> -0.3010
-0.3010 METER </s> -0.3010
-0.3010 METERS </s> -0.3010
-0.3010 NEGATIVE </s> -0.3010
-1.0000 NINE </s> -0.3010
-0.6990 NINE METERS 0.0000
-0.6990 NINE SECONDS 0.0000
-0.3010 NINER </s> -0.3010
-0.7782 NINETY </s> -0.3010
-0.4771 NINETY DEGREES 0.0000
-1.0000 ONE </s> -0.3010
-0.6990 ONE METER 0.0000
-0.6990 ONE SECOND 0.0000
-1.0000 RIGHT </s> -0.3010
-1.0000 RIGHT FORTY_FIVE -0.1249
-1.0000 RIGHT NINETY -0.1249
-1.0000 RIGHT SIXTY -0.1249
-1.0000 RIGHT THIRTY -0.1249
-0.3010 ROGER </s> -0.3010
-1.2553 ROTATE </s> -0.3010
-0.6532 ROTATE LEFT -0.0792
-0.6532 ROTATE RIGHT -0.0792
-0.3010 SECOND </s> -0.3010
-0.3010 SECONDS </s> -0.3010
-1.0000 SEVEN </s> -0.3010
-0.6990 SEVEN METERS 0.0000
-0.6990 SEVEN SECONDS 0.0000
-1.0000 SIX </s> -0.3010
-0.6990 SIX METERS 0.0000
-0.6990 SIX SECONDS 0.0000
-0.7782 SIXTY </s> -0.3010
-0.4771 SIXTY DEGREES 0.0000
-1.0000 TEN </s> -0.3010
-0.6990 TEN METERS 0.0000
-0.6990 TEN SECONDS 0.0000
-0.7782 THIRTY </s> -0.3010
-0.4771 THIRTY DEGREES 0.0000
-1.0000 THREE </s> -0.3010
-0.6990 THREE METERS 0.0000
-0.6990 THREE SECONDS 0.0000
-0.3010 TREE </s> -0.3010
-1.0000 TWO </s> -0.3010
-0.6990 TWO METERS 0.0000
-0.6990 TWO SECONDS 0.0000

\3-grams:
-0.3010 <s> AFFIRMATIVE </s>
-1.6232 <s> BACKWARD </s>
-1.3222 <s> BACKWARD EIGHT
-1.3222 <s> BACKWARD FIVE
-1.3222 <s> BACKWARD FOUR
-1.3222 <s> BACKWARD NINE
-1.3222 <s> BACKWARD ONE
-1.3222 <s> BACKWARD SEVEN
-1.3222 <s> BACKWARD SIX
-1.3222 <s> BACKWARD TEN
-1.3222 <s> BACKWARD THREE
-1.3222 <s> BACKWARD TWO
-0.3010 <s> CONFIRM </s>
-0.3010 <s> COPY </s>
-0.3010 <s> DEGREE </s>
-0.3010 <s> DEGREES </s>
-0.3010 <s> EIGHT </s>
-0.3010 <s> FIFE </s>
-0.3010 <s> FIVE </s>
-0.3010 <s> FORTY_FIVE </s>
-1.6232 <s> FORWARD </s>
-1.3222 <s> FORWARD EIGHT
-1.3222 <s> FORWARD FIVE
-1.3222 <s> FORWARD FOUR
-1.3222 <s> FORWARD NINE
-1.3222 <s> FORWARD ONE
-1.3222 <s> FORWARD SEVEN
-1.3222 <s> FORWARD SIX
-1.3222 <s> FORWARD TEN
-1.3222 <s> FORWARD THREE
-1.3222 <s> FORWARD TWO
-0.3010 <s> FOUR </s>
-0.3010 <s> FOWER </s>
-0.3010 <s> LEFT </s>
-0.3010 <s> MARK </s>
-0.3010 <s> METER </s>
-0.3010 <s> METERS </s>
-0.3010 <s> NEGATIVE </s>
-0.3010 <s> NINE </s>
-0.3010 <s> NINER </s>
-0.3010 <s> NINETY </s>
-0.3010 <s> ONE </s>
-0.3010 <s> RIGHT </s>
-0.3010 <s> ROGER </s>
-1.2553 <s> ROTATE </s>
-0.6532 <s> ROTATE LEFT
-0.6532 <s> ROTATE RIGHT
-0.3010 <s> SECOND </s>
-0.3010 <s> SECONDS </s>
-0.3010 <s> SEVEN </s>
-0.3010 <s> SIX </s>
-0.3010 <s> SIXTY </s>
-0.3010 <s> TEN </s>
-0.3010 <s> THIRTY </s>
-0.3010 <s> THREE </s>
-0.3010 <s> TREE </s>
-0.3010 <s> TWO </s>
-0.6021 BACKWARD EIGHT METERS
-0.6021 BACKWARD EIGHT SECONDS
-0.6021 BACKWARD FIVE METERS
-0.6021 BACKWARD FIVE SECONDS
-0.6021 BACKWARD FOUR METERS
-0.6021 BACKWARD FOUR SECONDS
-0.6021 BACKWARD NINE METERS
-0.6021 BACKWARD NINE SECONDS
-0.6021 BACKWARD ONE METER
-0.6021 BACKWARD ONE SECOND
-0.6021 BACKWARD SEVEN METERS
-0.6021 BACKWARD SEVEN SECONDS
-0.6021 BACKWARD SIX METERS
-0.6021 BACKWARD SIX SECONDS
-0.6021 BACKWARD TEN METERS
-0.6021 BACKWARD TEN SECONDS
-0.6021 BACKWARD THREE METERS
-0.6021 BACKWARD THREE SECONDS
-0.6021 BACKWARD TWO METERS
-0.6021 BACKWARD TWO SECONDS
-0.3010 EIGHT METERS </s>
-0.3010 EIGHT SECONDS </s>
-0.3010 FIVE METERS </s>
-0.3010 FIVE SECONDS </s>
-0.3010 FORTY_FIVE DEGREES </s>
-0.6021 FORWARD EIGHT METERS
-0.6021 FORWARD EIGHT SECONDS
-0.6021 FORWARD FIVE METERS
-0.6021 FORWARD FIVE SECONDS
-0.6021 FORWARD FOUR METERS
-0.6021 FORWARD FOUR SECONDS
-0.6021 FORWARD NINE METERS
-0.6021 FORWARD NINE SECONDS
-0.6021 FORWARD ONE METER
-0.6021 FORWARD ONE SECOND
-0.6021 FORWARD SEVEN METERS
-0.6021 FORWARD SEVEN SECONDS
-0.6021 FORWARD SIX METERS
-0.6021 FORWARD SIX SECONDS
-0.6021 FORWARD TEN METERS
-0.6021 FORWARD TEN SECONDS
-0.6021 FORWARD THREE METERS
-0.6021 FORWARD THREE SECONDS
-0.6021 FORWARD TWO METERS
-0.6021 FORWARD TWO SECONDS
-0.3010 FOUR METERS </s>
-0.3010 FOUR SECONDS </s>
-0.3010 LEFT FORTY_FIVE DEGREES
-0.3010 LEFT NINETY DEGREES
-0.3010 LEFT SIXTY DEGREES
-0.3010 LEFT THIRTY DEGREES
-0.3010 NINE METERS </s>
-0.3010 NINE SECONDS </s>
-0.3010 NINETY DEGREES </s>
-0.3010 ONE METER </s>
-0.3010 ONE SECOND </s>
-0.3010 RIGHT FORTY_FIVE DEGREES
-0.3010 RIGHT NINETY DEGREES
-0.3010 RIGHT SIXTY DEGREES
-0.3010 RIGHT THIRTY DEGREES
-0.9031 ROTATE LEFT FORTY_FIVE
-0.9031 ROTATE LEFT NINETY
-0.9031 ROTATE LEFT SIXTY
-0.9031 ROTATE LEFT THIRTY
-0.9031 ROTATE RIGHT FORTY_FIVE
-0.9031 ROTATE RIGHT NINETY
-0.9031 ROTATE RIGHT SIXTY
-0.9031 ROTATE RIGHT THIRTY
-0.3010 SEVEN METERS </s>
-0.3010 SEVEN SECONDS </s>
-0.3010 SIX METERS </s>
-0.3010 SIX SECONDS </s>
-0.3010 SIXTY DEGREES </s>
-0.3010 TEN METERS </s>
-0.3010 TEN SECONDS </s>
-0.3010 THIRTY DEGREES </s>
-0.3010 THREE METERS </s>
-0.3010 THREE SECONDS </s>
-0.3010 TWO METERS </s>
-0.3010 TWO SECONDS </s>

\end\
